tree
version=v4
num_class=1
num_tree_per_iteration=1
label_index=0
max_feature_idx=6
objective=binary sigmoid:1
feature_names=diff_attack diff_midfield diff_defense diff_power_index diff_avg_rating diff_clutch bt_proba
feature_infos=none none none none [-0.586666666666666:0.586666666666666] [-3.1222314478463957:3.1222314478463957] [0.15350086908111932:0.86957310316235081]
tree_sizes=1667 1724 1722 1727 1713 1720 1721 1719 1715 1716 1715 1727 1721 1726 1722 1712 1728 1724 1729 1731 1733 1719 1730 1734 1726 1716 1728 1736 1738 1737 1737 1718

Tree=0
num_leaves=15
num_cat=0
split_feature=6 6 6 6 6 4 5 6 4 5 5 4 5 6
split_gain=131.791 35.4838 13.5093 8.01144 3.75502 4.17548 4.54874 3.14345 2.91307 2.80949 2.3667 2.47903 2.24168 2.15319
threshold=0.54736875589078882 0.43970150572135763 0.70842079093450716 0.35622445254775909 0.65121137259500872 0.29000000000000054 1.0072283586141355 0.54520600904165761 0.1700000000000004 -0.91936164081701566 1.0145562857911516 0.076666666666666675 -1.2025689433226707 0.67513680833168688
decision_type=2 2 2 2 2 2 2 2 2 2 2 2 2 2
left_child=1 3 4 -1 5 6 -2 8 9 12 -5 -12 -3 -6
right_child=2 7 -4 10 13 -7 -8 -9 -10 -11 11 -13 -14 -15
leaf_value=0.21084637394463557 0.27308615241244832 0.25244943102316664 0.31101104147034608 0.23543567062981829 0.30162443399386396 0.24912144123122229 0.29404683641743617 0.21485190424206907 0.24343708925292609 0.26364699066147562 0.18434825043853703 0.23083000861534772 0.21762496367875378 0.28318954725928414
leaf_weight=81.137820929288864 100.06997914612293 31.71751181781292 43.027632310986519 80.646076560020447 25.324835017323494 13.277097970247267 34.913850218057632 4.9174436926841727 39.09367735683918 92.939685791730881 4.9174436926841718 6.884421169757843 5.4091880619525901 42.290015757083893
leaf_count=330 407 129 175 328 103 54 142 20 159 378 20 28 22 172
internal_value=0.258421 0.238309 0.285428 0.222312 0.280329 0.275876 0.278508 0.25426 0.255405 0.259002 0.232375 0.211463 0.247376 0.290094
internal_weight=606.567 347.663 258.903 173.586 215.876 148.261 134.984 174.078 169.16 130.066 92.4479 11.8019 37.1267 67.6149
internal_count=2467 1414 1053 706 878 603 549 708 688 529 376 48 151 275
is_linear=0
shrinkage=1


Tree=1
num_leaves=15
num_cat=0
split_feature=6 6 6 6 4 5 6 6 6 4 5 5 6 4
split_gain=119.079 31.7876 12.3767 7.13729 3.49473 4.11505 3.99904 4.00756 2.81927 2.62318 2.53373 2.1123 2.21093 2.11033
threshold=0.54736875589078882 0.43970150572135763 0.70842079093450716 0.35622445254775909 -0.27333333333333293 -0.88034702286017807 0.59984588036457909 0.55458960487998421 0.54520600904165761 0.1700000000000004 -0.91936164081701566 1.0145562857911516 0.38266138347302164 0.25000000000000006
decision_type=2 2 2 2 2 2 2 2 2 2 2 2 2 2
left_child=1 3 4 -1 5 -2 7 -6 9 10 -3 -5 -13 -9
right_child=2 8 -4 11 6 -7 -8 13 -10 -11 -12 12 -14 -15
leaf_value=-0.044938601781971947 -0.036136478577927511 -0.010477946866156147 0.05034305775389776 -0.021772757870307927 0.039236458419096509 0.017973920475676596 0.027421645818506785 0.011004923083012298 -0.041172982212145964 -0.014207314084686477 0.0049682462754625468 -0.064180754192888587 -0.020856809611439962 -0.015498346021956752
leaf_weight=81.589841544628143 5.6417489051818839 37.176970154047012 42.708864063024521 80.874101758003235 11.284737989306448 9.3146857768297178 136.97059768438339 42.919039726257324 4.9427393078804007 39.166855081915855 92.876673460006714 6.4379542768001539 5.4273823797702789 9.1041312366723997
leaf_count=330 23 151 175 328 46 38 559 175 20 159 378 26 22 37
internal_value=2.89211e-06 -0.0190588 0.025756 -0.0341525 0.0208772 -0.00243718 0.0226183 0.0122259 -0.0039507 -0.00286348 0.000552817 -0.0246631 -0.0443637 0.00636681
internal_weight=606.436 348.493 257.944 174.329 215.235 14.9564 200.279 63.3079 174.163 169.22 130.054 92.7394 11.8653 52.0232
internal_count=2467 1414 1053 706 878 61 817 258 708 688 529 376 48 212
is_linear=0
shrinkage=0.05


Tree=2
num_leaves=15
num_cat=0
split_feature=6 6 6 6 6 4 5 6 6 5 4 4 4 4
split_gain=107.887 22.5448 15.0407 6.38248 3.93293 3.34239 4.3133 2.02775 2.01837 5.81987 2.43458 2.01619 1.96459 2.31046
threshold=0.52059046745343152 0.43970150572135763 0.65121137259500872 0.35622445254775909 0.74165353389758704 0.29000000000000054 1.0072283586141355 0.56905636829876527 0.28786218724983514 -0.083953189667482761 -0.043333333333333439 0.22000000000000022 -0.27666666666666678 0.16333333333333358
decision_type=2 2 2 2 2 2 2 2 2 2 2 2 2 2
left_child=1 3 5 8 -4 6 -2 -8 9 10 -1 -10 -3 -14
right_child=2 12 4 -5 -6 -7 7 -9 11 -11 -12 -13 13 -15
leaf_value=-0.012062747004526329 0.010601953843551087 -0.024788478571166523 0.031394581536881509 -0.023366800614561308 0.054153415656073636 -0.010853206439258158 0.0094587636313515893 0.035929916853705612 -0.034225138850285906 -0.083850783091451886 -0.056489448049851204 -0.062034678618282296 0.00067483622831594195 -0.014498825758467698
leaf_weight=6.7037632763385773 130.87414015829563 11.828488200902937 84.970012441277504 92.982660412788391 24.443345353007317 13.53352279961109 9.5600915402173978 29.739704474806786 52.140381038188934 9.9315011501312238 5.7106131613254565 7.4486258625984183 91.666982546448708 34.540601402521133
leaf_count=27 534 48 349 376 101 55 39 122 210 40 23 30 373 140
internal_value=5.34614e-06 -0.0204109 0.021803 -0.0323324 0.036479 0.0130621 0.0149641 0.0294905 -0.042507 -0.055322 -0.032499 -0.0377013 -0.00530404 -0.0034779
internal_weight=606.074 312.954 293.121 174.918 109.413 183.707 170.174 39.2998 81.9349 22.3459 12.4144 59.589 138.036 126.208
internal_count=2467 1267 1200 706 450 750 695 161 330 90 50 240 561 513
is_linear=0
shrinkage=0.05


Tree=3
num_leaves=15
num_cat=0
split_feature=6 6 6 6 4 5 6 6 6 4 6 4 5 5
split_gain=97.7974 25.4624 10.5555 5.72983 3.15763 3.68549 3.33281 3.66549 2.62696 2.17941 2.34672 2.70106 2.0802 4.29102
threshold=0.54736875589078882 0.43970150572135763 0.70842079093450716 0.35622445254775909 -0.27333333333333293 -0.88034702286017807 0.59984588036457909 0.55458960487998421 0.54520600904165761 0.1700000000000004 0.53960908783857631 0.11999999999999968 0.59165843387728156 1.193445270025965
decision_type=2 2 2 2 2 2 2 2 2 2 2 2 2 2
left_child=1 3 4 -1 5 -2 7 -6 9 10 11 12 -3 -14
right_child=2 8 -4 -5 6 -7 -8 -9 -10 -11 -12 -13 13 -15
leaf_value=-0.040257659592637357 -0.034987950631884361 -0.0074949570954651991 0.046413447824437654 -0.022146499042550491 0.037098832084325989 0.016230420237103513 0.025068600013707993 0.0055633100262916391 -0.039521699932109383 -0.012918213471185595 0.030720199999744752 0.018392687442617899 0.032573586759307736 -0.0098816140571556729
leaf_weight=82.179095864295959 5.6571917086839667 84.123744487762451 41.995312750339508 93.195126742124557 11.203933089971541 9.2632843255996686 135.88459581136703 51.893400818109512 4.9577897787094107 39.278870418667793 6.1297494918107978 15.721132531762121 10.800308346748354 13.25730340182781
leaf_count=330 23 342 175 376 46 38 559 212 20 159 25 64 44 54
internal_value=7.38284e-06 -0.0171829 0.0234951 -0.0306333 0.0189956 -0.00318935 0.0206591 0.0111629 -0.00364721 -0.00259673 0.000521089 -0.000972932 -0.00378718 0.00917802
internal_weight=605.541 349.643 255.898 175.374 213.902 14.9205 198.982 63.0973 174.269 169.311 130.032 123.902 108.181 24.0576
internal_count=2467 1414 1053 706 878 61 817 258 708 688 529 504 440 98
is_linear=0
shrinkage=0.05


Tree=4
num_leaves=15
num_cat=0
split_feature=6 6 6 6 4 5 4 5 6 4 4 4 5 4
split_gain=88.4527 22.9023 9.72437 5.15731 2.86635 3.31778 3.22015 2.55639 2.36158 2.3422 2.79347 2.58274 2.02399 1.97749
threshold=0.54736875589078882 0.43970150572135763 0.70842079093450716 0.35622445254775909 -0.27333333333333293 -0.88034702286017807 0.29000000000000054 1.1325856414385387 0.54520600904165761 -0.12666666666666646 0.23000000000000045 -0.17333333333333331 1.0072283586141355 0.15333333333333291
decision_type=2 2 2 2 2 2 2 2 2 2 2 2 2 2
left_child=1 3 4 -1 5 -2 7 9 13 11 -11 -6 -8 -3
right_child=2 8 -4 -5 6 -7 12 -9 -10 10 -12 -13 -14 -15
leaf_value=-0.038163229629078144 -0.033097670907000713 0.0007951639278569551 0.044538552130440723 -0.020997873808985101 0.019599096100231736 0.015460413283340607 0.023313493436473848 0.032661731629146401 -0.037420702556018322 0.013130253310433236 0.043316168511065151 0.051509408705148654 -0.01419796218449193 -0.011418303993773214
leaf_weight=82.34990282356739 5.6806377321481696 124.13018983602524 41.585499659180641 93.3736272752285 16.73663114011288 9.2390425950288755 5.3964214920997646 40.567476376891136 4.9738973379135123 106.33810925483704 8.2596578150987607 10.208858549594877 10.778333410620688 45.213402956724167
leaf_count=330 23 505 175 376 69 38 22 168 20 438 34 42 44 183
internal_value=9.24814e-06 -0.016304 0.022421 -0.0290421 0.018107 -0.00302798 0.0196973 0.0215962 -0.00346313 0.0184247 0.0153059 0.031689 -0.00168293 -0.00246574
internal_weight=604.832 350.041 254.791 175.724 213.205 14.9197 198.285 182.111 174.317 141.543 114.598 26.9455 16.1748 169.344
internal_count=2467 1414 1053 706 878 61 817 751 708 583 472 111 66 688
is_linear=0
shrinkage=0.05


Tree=5
num_leaves=15
num_cat=0
split_feature=6 6 6 6 6 4 5 5 4 6 6 5 4 4
split_gain=80.3368 16.1509 11.976 4.65353 3.20591 2.86431 3.57188 1.88977 2.02158 1.8315 1.80755 5.20584 2.17917 1.80395
threshold=0.52059046745343152 0.43970150572135763 0.65121137259500872 0.35622445254775909 0.74165353389758704 0.29000000000000054 1.0072283586141355 1.0145562857911516 0.11333333333333463 0.36878443454131782 0.28786218724983514 -0.083953189667482761 -0.043333333333333439 0.22000000000000022
decision_type=2 2 2 2 2 2 2 2 2 2 2 2 2 2
left_child=1 3 5 10 -4 6 -2 9 -9 -5 11 12 -1 -12
right_child=2 -3 4 7 -6 -7 -8 8 -10 -11 13 -13 -14 -15
leaf_value=-0.0074837586209203326 0.0090041900819468577 -0.004711021271803304 0.027649247988138205 0.0013586392906436619 0.048482524604049192 -0.010937074253294323 0.026289017255428111 -0.059865575190614723 -0.018727107782183821 -0.020219360384338834 -0.028396871668639235 -0.075182052553468381 -0.049387693429477894 -0.054614723813808087
leaf_weight=6.7404092252254486 130.14730474352837 138.20105645060539 83.648335412144661 11.437969893217085 23.697621330618858 13.527742803096769 38.798921823501587 5.7425570636987668 6.2218891829252243 70.119728475809097 52.46278390288353 9.9999672174453718 5.7486191540956515 7.4987854063510886
leaf_count=27 534 561 349 46 101 55 161 23 25 282 210 40 23 30
internal_value=1.08237e-05 -0.0175034 0.0189968 -0.0275499 0.0322484 0.0112011 0.0129737 -0.0199154 -0.0384723 -0.0171932 -0.0362095 -0.048298 -0.0267719 -0.0316757
internal_weight=603.994 314.174 289.82 175.973 107.346 182.474 168.946 93.5221 11.9644 81.5577 82.4506 22.489 12.489 59.9616
internal_count=2467 1267 1200 706 450 750 695 376 48 328 330 90 50 240
is_linear=0
shrinkage=0.05


Tree=6
num_leaves=15
num_cat=0
split_feature=6 6 6 5 6 5 4 5 6 6 6 4 4 4
split_gain=72.856 18.4383 8.34365 4.39925 3.46657 3.92141 2.5956 2.9725 2.78727 3.32538 2.19609 1.96654 1.86459 1.7989
threshold=0.54736875589078882 0.43970150572135763 0.70842079093450716 1.8679818053347435 0.28786218724983514 -0.083953189667482761 -0.27333333333333293 -0.88034702286017807 0.59984588036457909 0.55458960487998421 0.54520600904165761 -0.043333333333333439 -0.12666666666666646 0.1700000000000004
decision_type=2 2 2 2 2 2 2 2 2 2 2 2 2 2
left_child=1 3 6 4 5 11 7 -2 9 -8 13 -1 -11 -3
right_child=2 10 -4 -5 -6 -7 8 -9 -10 12 -12 -13 -14 -15
leaf_value=-0.0071076119481197205 -0.032028779268849665 0.00058090422071261619 0.041206376829202487 -0.07125275525303279 -0.02206739291603254 -0.06873433573863498 0.034183282879495354 0.013953586637785989 0.022085387979822027 0.029474846892169716 -0.035931899694095375 -0.046910566716668115 0.00044067743153996175 -0.011617024278904875
leaf_weight=6.7422164976596832 5.6921790093183509 130.03579677641392 40.743067115545273 5.2460858672857276 149.37427128851414 8.9884922504425031 11.069903448224066 9.1873615086078626 134.24779903888702 6.2981777787208548 4.9831184744834891 5.7495140135288256 45.321739479899406 39.378928035497665
leaf_count=27 23 529 175 21 599 36 46 38 559 26 20 23 186 159
internal_value=1.18667e-05 -0.0147405 0.020485 -0.026153 -0.0247682 -0.0435495 0.0164992 -0.003637 0.0180206 0.00931596 -0.00321667 -0.0254275 0.00398315 -0.00225439
internal_weight=603.059 350.498 252.56 176.101 170.854 21.4802 211.817 14.8795 196.938 62.6898 174.398 12.4917 51.6199 169.415
internal_count=2467 1414 1053 706 685 86 878 61 817 258 708 50 212 688
is_linear=0
shrinkage=0.05


Tree=7
num_leaves=15
num_cat=0
split_feature=6 6 6 6 6 4 5 4 5 4 5 5 6 6
split_gain=66.0882 12.9993 10.1594 4.01382 3.05667 2.58563 3.16974 1.79305 1.76201 2.27887 1.99083 2.36637 2.14694 2.00922
threshold=0.52059046745343152 0.43970150572135763 0.65121137259500872 0.35622445254775909 0.80370701709059034 0.29000000000000054 1.0072283586141355 -0.27333333333333293 0.53520985536708932 0.19666666666666635 1.0000000180025095e-35 -0.34016905471614572 0.56444012265106813 0.54736875589078882
decision_type=2 2 2 2 2 2 2 2 2 2 2 2 2 2
left_child=1 3 5 -1 -4 6 8 -3 10 -10 11 -2 13 -12
right_child=2 7 4 -5 -6 -7 -8 -9 9 -11 12 -13 -14 -15
leaf_value=-0.032883297236618127 0.011234358104314886 -0.022522044134272522 0.027455055658260993 -0.017757965584598034 0.062491148285967552 -0.010864677389414516 0.024460923215161395 -0.0025705273356425576 -0.010336700946800559 0.021903062245536828 0.020436476487467721 -0.011880203511662628 0.0090853185870798069 0.057956686379060866
leaf_weight=82.428739815950394 55.405603259801865 12.366894781589506 99.181897282600403 93.746129512786865 6.6421689838170996 13.527119651436804 38.47397492825985 125.93818016350269 22.646175861358646 7.2314763069152823 8.8309946209192294 13.83812841773033 15.75779967010021 5.9871706664562216
leaf_count=330 228 50 421 376 29 55 161 511 93 30 36 57 65 25
internal_value=1.28318e-05 -0.0158278 0.0173386 -0.0248348 0.0296541 0.0101659 0.0118575 -0.00435454 0.0081188 -0.00253351 0.0113072 0.00661499 0.0219334 0.0355962
internal_weight=602.002 314.48 287.523 176.175 105.824 181.698 168.171 138.305 129.697 29.8777 99.8197 69.2437 30.576 14.8182
internal_count=2467 1267 1200 706 450 750 695 561 534 123 411 285 126 61
is_linear=0
shrinkage=0.05


Tree=8
num_leaves=15
num_cat=0
split_feature=6 6 6 5 6 5 4 5 4 4 6 6 6 6
split_gain=59.9573 14.916 7.29862 3.9369 3.02257 3.59378 2.37204 2.66603 2.52601 2.44255 2.40822 3.01164 2.19478 1.98716
threshold=0.54736875589078882 0.43970150572135763 0.70842079093450716 1.8679818053347435 0.28786218724983514 -0.083953189667482761 -0.27333333333333293 -0.88034702286017807 -0.12666666666666646 -0.17333333333333331 0.59984588036457909 0.55458960487998421 0.63504620349665297 0.54520600904165761
decision_type=2 2 2 2 2 2 2 2 2 2 2 2 2 2
left_child=1 3 6 4 5 -1 7 -2 9 -8 11 -10 -11 -3
right_child=2 13 -4 -5 -6 -7 8 -9 10 12 -12 -13 -14 -15
leaf_value=-0.0225254713658396 -0.03111506783276316 -0.0020494621889726792 0.038314280561958972 -0.066319609889343309 -0.019766771330730862 -0.064063467420008985 0.018718811607923384 0.012462051293500592 0.031861658138447303 0.02617841914906462 0.018282014816647742 0.00022010896523051273 0.071489617950724296 -0.034057725803325271
leaf_weight=12.484846428036692 5.7010941654443732 169.47265142202377 39.902121260762215 5.2305596619844428 149.55003532767296 8.9328680634498578 17.199882552027706 9.1317879855632764 9.0180079787969571 5.2712035924196226 113.34289979934692 45.276596695184708 5.4209282994270325 4.9917955249547949
leaf_count=50 23 688 175 21 599 36 72 38 38 22 476 186 23 20
internal_value=1.38314e-05 -0.0133286 0.0187088 -0.0235899 -0.0222827 -0.0398501 0.01499 -0.00428704 0.0164524 0.0303848 0.0141343 0.00547558 0.0491513 -0.00296529
internal_weight=600.927 350.663 250.265 176.198 170.968 21.4177 210.362 14.8329 195.53 27.892 167.638 54.2946 10.6921 174.464
internal_count=2467 1414 1053 706 685 86 878 61 817 117 700 224 45 708
is_linear=0
shrinkage=0.05


Tree=9
num_leaves=15
num_cat=0
split_feature=6 6 6 6 6 4 5 6 5 6 6 6 4 4
split_gain=54.4264 10.832 8.51959 3.12229 2.83591 2.33912 2.89166 1.71894 1.67385 1.90225 1.64459 1.6415 2.45397 1.94878
threshold=0.52059046745343152 0.35622445254775909 0.65121137259500872 0.43970150572135763 0.80370701709059034 0.29000000000000054 1.3279273312041762 0.64877903067124143 1.0145562857911516 0.38266138347302164 0.36878443454131782 0.60519205365000095 -0.24666666666666567 -0.12666666666666646
decision_type=2 2 2 2 2 2 2 2 2 2 2 2 2 2
left_child=1 -1 5 8 -4 6 7 11 10 -10 -3 13 -13 -2
right_child=2 3 4 -5 -6 -7 -8 -9 9 -11 -12 12 -14 -15
leaf_value=-0.029918942015968654 0.01722573112973412 0.0042610768958969772 0.025103964436841167 -0.0040313255175841679 0.059368019419871215 -0.010724310334616224 0.031201725519936246 -0.020690736681224675 -0.051612351045880939 -0.011641511246203768 -0.016149996063536315 -0.016948918343180415 0.020419600219695581 0.0013387660299408397
leaf_weight=82.263748183846474 26.91710852086544 11.477299153804777 97.804505169391632 138.40206350386143 6.4362516701221457 13.528462797403334 15.862493589520453 4.7964020967483512 6.4944132268428785 5.4952694028615952 70.420134365558624 4.8490571826696387 46.750976666808128 68.236852049827576
leaf_count=330 111 46 421 561 29 55 67 20 26 22 282 20 196 281
internal_value=1.45706e-05 -0.0143274 0.0158336 -0.00880578 0.0272196 0.00927418 0.0108902 0.00876427 -0.015844 -0.0332924 -0.0132895 0.00972696 0.0169079 0.00583286
internal_weight=599.735 314.553 285.182 232.289 104.241 180.941 167.413 151.55 93.8871 11.9897 81.8974 146.754 51.6 95.154
internal_count=2467 1267 1200 937 450 750 695 628 376 48 328 608 216 392
is_linear=0
shrinkage=0.05


Tree=10
num_leaves=15
num_cat=0
split_feature=6 6 6 5 6 5 4 5 4 4 6 6 6 6
split_gain=49.373 12.0948 6.39625 3.55521 2.64768 3.32176 2.14985 2.37099 2.26808 2.2402 2.05496 1.87901 2.7471 1.8142
threshold=0.54736875589078882 0.43970150572135763 0.70842079093450716 1.8679818053347435 0.28786218724983514 -0.083953189667482761 -0.27333333333333293 -0.88034702286017807 -0.12666666666666646 -0.17333333333333331 0.63504620349665297 0.59984588036457909 0.55458960487998421 0.54520600904165761
decision_type=2 2 2 2 2 2 2 2 2 2 2 2 2 2
left_child=1 3 6 4 5 -1 7 -2 9 -8 -11 12 -10 -3
right_child=2 13 -4 -5 -6 -7 8 -9 11 10 -12 -13 -14 -15
leaf_value=-0.019934180984399308 -0.030000425156677987 -0.0018594029483298203 0.035665736756481901 -0.062068640432388446 -0.017720584330857891 -0.06000172692925726 0.017118688077602476 0.011120801009134065 0.030485018196932834 0.024216392855070195 0.068439565111817355 0.01650901427121924 0.00016917992429680534 -0.032427745165537855
leaf_weight=12.466495186090471 5.7104740887880316 169.53741297125816 39.047179356217384 5.1919955611228934 149.55312211811543 8.8413151502609235 17.06698048114777 9.0779458135366422 8.9504580497741681 5.2217877358198148 5.2862231582403183 112.33768257498741 45.259483262896538 4.9968489408493033
leaf_count=50 23 688 175 21 599 36 72 38 38 22 23 476 186 20
internal_value=1.51648e-05 -0.0120618 0.0170907 -0.0213085 -0.02007 -0.0365595 0.0136189 -0.00475795 0.0150189 0.0283012 0.0464636 0.0128197 0.00517455 -0.00273456
internal_weight=598.545 350.587 247.958 176.053 170.861 21.3078 208.911 14.7884 194.123 27.575 10.508 166.548 54.2099 174.534
internal_count=2467 1414 1053 706 685 86 878 61 817 117 45 700 224 708
is_linear=0
shrinkage=0.05


Tree=11
num_leaves=15
num_cat=0
split_feature=6 6 6 6 5 5 5 4 5 4 4 5 4 4
split_gain=44.8533 9.12015 7.14175 2.64359 2.60224 3.04497 2.54927 2.28412 3.04215 2.50727 2.3365 2.25521 6.11357 2.11676
threshold=0.52059046745343152 0.37692582241134204 0.65121137259500872 0.80370701709059034 1.5100205676676242 1.4235640606669977 0.86916897040581287 0.18000000000000019 0.59165843387728156 -0.27333333333333293 0.33000000000000013 -0.018796367339202643 -0.026666666666666835 0.29000000000000054
decision_type=2 2 2 2 2 2 2 2 2 2 2 2 2 2
left_child=1 6 13 -4 5 7 -1 8 9 -3 -9 -11 -13 -2
right_child=2 4 3 -5 -6 -7 -8 10 -10 11 -12 12 -14 -15
leaf_value=-0.02145872064420104 0.010009154799483874 -0.024476870807872021 0.022949930936781594 0.056575717073955006 -0.026771316952289861 0.020924895702615309 -0.042104086347814706 -0.028206355030434439 0.013182343098205178 -0.00038526513289924763 0.0024618256834638402 -0.045092573432811804 0.0020709398189524305 -0.010554500270409706
leaf_weight=86.882776364684105 166.66904485225677 18.151224970817566 96.43179278075695 6.2222093790769568 15.349809661507605 10.406979054212568 18.060618877410889 21.646556913852695 21.209239691495895 85.246757417917252 8.7092825472354871 11.366110861301424 17.373932033777237 13.530363857746122
leaf_count=349 695 73 421 29 62 42 73 87 86 344 35 46 70 55
internal_value=1.5627e-05 -0.0129808 0.0144617 0.0249881 -0.00695306 -0.00538587 -0.0250118 -0.0068764 -0.00439582 -0.00721726 -0.0194075 -0.00446885 -0.0165813 0.00846512
internal_weight=597.257 314.403 282.853 102.654 209.46 194.11 104.943 183.703 153.347 132.138 30.3558 113.987 28.74 180.199
internal_count=2467 1267 1200 450 845 783 422 741 619 533 122 460 116 750
is_linear=0
shrinkage=0.05


Tree=12
num_leaves=15
num_cat=0
split_feature=6 6 6 5 6 5 4 5 4 4 6 4 6 4
split_gain=40.7684 10.163 5.60053 3.09543 2.32758 3.04707 1.97399 2.12707 2.05073 2.0837 1.91583 1.80221 1.71951 1.71183
threshold=0.54736875589078882 0.43970150572135763 0.70842079093450716 1.8679818053347435 0.28786218724983514 -0.083953189667482761 -0.27333333333333293 -0.88034702286017807 -0.12666666666666646 -0.17333333333333331 0.63504620349665297 -0.043333333333333439 0.54520600904165761 -0.1066666666666669
decision_type=2 2 2 2 2 2 2 2 2 2 2 2 2 2
left_child=1 3 6 4 5 11 7 -2 9 -8 -11 -1 -3 -6
right_child=2 12 -4 -5 13 -7 8 -9 -10 10 -12 -13 -14 -15
leaf_value=-0.00041094816271719498 -0.029104913693986663 -0.001539847281600672 0.033224626255795496 -0.057711328186873204 -0.024402270631592258 -0.056447284977106875 0.015655166719474936 0.0098728683324340177 0.011646867582468341 0.022691818471713726 0.065771657947243489 -0.038608124423400343 -0.031293603321596239 -0.012636758607761296
leaf_weight=6.7426795810461044 5.7173696905374518 169.61425673961639 38.195289507508278 5.1248694062232962 43.683910936117172 8.7240220159292203 16.938762426376346 9.0256015658378583 165.53558751940727 5.1803699135780317 5.1428328901529312 5.6973201632499713 4.9989181607961646 105.77252428233624
leaf_count=27 23 688 175 21 175 36 72 38 700 22 23 23 20 424
internal_value=1.59661e-05 -0.010935 0.0156293 -0.0194233 -0.0182732 -0.0337923 0.0123911 -0.00524284 0.0137396 0.0264465 0.0441534 -0.0179046 -0.00239165 -0.0160756
internal_weight=596.094 350.359 245.736 175.745 170.62 21.164 207.541 14.743 192.798 27.262 10.3232 12.44 174.613 149.456
internal_count=2467 1414 1053 706 685 86 878 61 817 117 45 50 708 599
is_linear=0
shrinkage=0.05


Tree=13
num_leaves=15
num_cat=0
split_feature=6 6 6 5 5 6 6 5 4 4 6 4 6 5
split_gain=36.9644 7.69895 6.13328 2.44981 2.90623 2.06623 2.01644 2.83595 2.78865 1.95838 1.93536 1.88557 1.86326 1.58951
threshold=0.52059046745343152 0.35622445254775909 0.70842079093450716 1.5100205676676242 1.4235640606669977 0.59119071098410603 0.46587436174851465 1.0145562857911516 -0.36666666666666664 0.2933333333333335 0.47038780580783873 -0.26333333333333359 0.70319011575160295 -1.1328377327720245
decision_type=2 2 2 2 2 2 2 2 2 2 2 2 2 2
left_child=1 -1 5 4 6 9 7 13 -8 -2 -5 -7 -13 -3
right_child=2 3 -4 10 -6 11 8 -9 -10 -11 -12 12 -14 -15
leaf_value=-0.024981052251558406 0.0064356876448317755 -0.020069678581513848 0.031955822133374605 -0.051126265759633263 0.019422270644734486 -0.0081359700827355573 -0.037282949676894148 -0.039507629408279191 0.0013435962366261473 -0.021686218725629251 -0.01380152360363868 0.016403812809698198 -0.015206760067616509 -0.0059666744594101158
leaf_weight=81.587083712220192 85.75887131690979 25.667785510420799 37.73806931078434 5.2114773839712134 10.888888224959372 9.1167981922626478 4.9743887782096854 8.2069881409406644 77.031039908528328 6.672489494085311 10.411294013261793 136.55231493711472 4.82652424275875 90.151136949658394
leaf_count=330 355 103 175 21 44 38 20 33 312 27 42 584 21 362
internal_value=1.60561e-05 -0.0117659 0.0132028 -0.00712941 -0.00575216 0.0102896 -0.00708264 -0.0111048 -0.000999462 0.00440561 -0.0262524 0.0139035 0.0153247 -0.00909218
internal_weight=594.795 314.13 280.665 232.543 216.92 242.927 206.031 124.026 82.0054 92.4314 15.6228 150.496 141.379 115.819
internal_count=2467 1267 1200 937 874 1025 830 498 332 382 63 643 605 465
is_linear=0
shrinkage=0.05


Tree=14
num_leaves=15
num_cat=0
split_feature=6 6 6 5 6 5 4 5 4 4 6 4 6 4
split_gain=33.5747 8.33933 4.77417 2.79402 2.04548 2.84087 1.65539 1.93408 1.8794 1.96509 1.819 1.64307 1.59956 1.58749
threshold=0.54736875589078882 0.43970150572135763 0.70842079093450716 1.8679818053347435 0.28786218724983514 -0.083953189667482761 -0.27333333333333293 -0.88034702286017807 -0.12666666666666646 -0.17333333333333331 0.63504620349665297 -0.043333333333333439 0.54520600904165761 0.15333333333333291
decision_type=2 2 2 2 2 2 2 2 2 2 2 2 2 2
left_child=1 3 6 4 5 11 7 -2 9 -8 -11 -1 13 -3
right_child=2 12 -4 -5 -6 -7 8 -9 -10 10 -12 -13 -14 -15
leaf_value=0.00085891116283146247 -0.027568345985992448 0.0015709064996904212 0.030735131522476335 -0.05425460735835827 -0.014467129173647142 -0.053244318954721363 0.014287892905986253 0.0095864180827669697 0.010532205040868922 0.021253493206287055 0.063598464072074909 -0.035691394124749268 -0.03004560396146231 -0.0093572985319279444
leaf_weight=6.7359590381383896 5.7284670472145072 124.29667900502682 37.286732375621796 5.0515785962343207 149.27575840055943 8.5868116021156293 16.814972713589672 9.0139904916286451 164.59616942703724 5.1389387100934965 5.0072230249643326 5.6570915877819079 4.9997450560331336 45.358795270323753
leaf_count=27 23 505 175 21 599 36 72 38 700 22 23 23 20 183
internal_value=1.61735e-05 -0.00990502 0.01427 -0.017609 -0.0165217 -0.0311405 0.0112941 -0.00485078 0.0125366 0.0247735 0.0421511 -0.0158253 -0.00217227 -0.00135084
internal_weight=593.549 349.962 243.586 175.307 170.256 20.9799 206.3 14.7425 191.557 26.9611 10.1462 12.3931 174.655 169.655
internal_count=2467 1414 1053 706 685 86 878 61 817 117 45 50 708 688
is_linear=0
shrinkage=0.05


Tree=15
num_leaves=15
num_cat=0
split_feature=6 6 6 6 5 5 4 5 6 6 6 5 4 5
split_gain=30.4761 6.45624 5.34827 2.38873 2.19562 2.62259 1.8688 2.54724 1.71485 1.65783 1.6464 2.55131 2.53006 1.44417
threshold=0.52059046745343152 0.35622445254775909 0.65121137259500872 0.80370701709059034 1.5100205676676242 1.4235640606669977 0.29000000000000054 1.3279273312041762 0.47038780580783873 0.64877903067124143 0.46587436174851465 1.0145562857911516 -0.36666666666666664 -1.1328377327720245
decision_type=2 2 2 2 2 2 2 2 2 2 2 2 2 2
left_child=1 -1 6 -4 5 10 7 9 -6 -2 11 13 -12 -3
right_child=2 4 3 -5 8 -7 -8 -9 -10 -11 12 -13 -14 -15
leaf_value=-0.022815973889874469 0.0072941416670807436 -0.018581076751276782 0.019399123212083706 0.05233943537606435 -0.04800381305194306 0.018801373148104008 -0.011001694770621651 0.027619819921801 -0.01284412008004286 -0.022711884770502715 -0.035416743358115989 -0.036982269249831543 0.0013371558461645909 -0.0051411228355807918
leaf_weight=81.134758159518242 145.003777384758 25.680109158158302 93.888765633106232 5.8463554978370658 5.1963037252426139 10.87334507703781 13.509374752640722 15.522867307066916 10.426702111959456 4.7541447281837454 4.9854183793067923 8.1987359225749952 77.023693576455116 90.170258477330208
leaf_count=330 608 103 421 29 21 44 55 67 42 20 20 33 312 362
internal_value=1.61228e-05 -0.0106718 0.0120534 0.02133 -0.00643485 -0.00513106 0.00687854 0.00834 -0.0245384 0.00634158 -0.00639394 -0.0100279 -0.000897152 -0.00812031
internal_weight=592.215 313.689 278.525 99.7351 232.555 216.932 178.79 165.281 15.623 149.758 206.058 124.049 82.0091 115.85
internal_count=2467 1267 1200 450 937 874 750 695 63 628 830 498 332 465
is_linear=0
shrinkage=0.05


Tree=16
num_leaves=15
num_cat=0
split_feature=6 6 6 5 6 5 4 4 4 6 5 5 6 4
split_gain=27.7353 6.87903 4.1709 2.08478 1.72094 2.46493 1.7541 4.04558 3.13347 1.67188 1.5268 1.86413 1.65035 1.51003
threshold=0.54736875589078882 0.37692582241134204 0.70842079093450716 0.26036700336700497 0.46587436174851465 1.5100205676676242 0.18000000000000019 0.040000000000000487 0.24333333333333321 0.54520600904165761 -0.31134430072772185 -0.80369589088159887 0.78261525247023112 0.013333333333333199
decision_type=2 2 2 2 2 2 2 2 2 2 2 2 2 2
left_child=1 3 -2 -1 5 6 7 13 -8 -6 11 -4 -12 -3
right_child=2 4 10 -5 9 -7 8 -9 -10 -11 12 -13 -14 -15
leaf_value=-0.014716664511392162 0.010273788732066684 -0.0076738476734423341 0.026949912872310897 -0.029693921496978339 0.00056663499062129766 -0.043506890496187389 -0.048608027466078667 0.012783903237954187 -0.0037658963767360672 -0.028911524661629374 0.01650371814543242 0.070917726194305461 0.048806482906961685 -0.027750417406461177
leaf_weight=68.768684834241867 205.06111137568951 57.016734540462494 5.7501229047775269 35.09061661362648 127.12741529941559 4.9342701584100714 6.7357178926467887 24.307526707649231 9.2398988753557187 4.9991482496261588 21.737132415175441 4.1510218977928144 4.8331445753574362 11.206729605793951
leaf_count=278 878 229 28 144 516 20 27 98 37 20 103 20 24 45
internal_value=1.61535e-05 -0.00898954 0.0130448 -0.019777 -0.00442715 -0.00894444 -0.00737274 -0.00473122 -0.0226725 -0.000548702 0.0286246 0.0453833 0.0223796 -0.0109717
internal_weight=590.959 349.427 241.533 103.859 245.567 113.441 108.507 92.531 15.9756 132.127 36.4714 9.90114 26.5703 68.2235
internal_count=2467 1414 1053 422 992 456 436 372 64 536 175 48 127 274
is_linear=0
shrinkage=0.05


Tree=17
num_leaves=15
num_cat=0
split_feature=6 6 6 6 5 5 5 4 5 4 4 6 4 6
split_gain=25.1049 6.28446 3.86073 1.96735 2.58011 1.59561 2.4814 1.51229 1.72966 1.7149 1.84279 1.71978 1.59819 1.5097
threshold=0.54736875589078882 0.35622445254775909 0.70842079093450716 0.46587436174851465 1.5100205676676242 1.380012987012986 1.0145562857911516 -0.27333333333333293 -0.88034702286017807 -0.12666666666666646 -0.17333333333333331 0.63504620349665297 -0.20666666666666653 0.54520600904165761
decision_type=2 2 2 2 2 2 2 2 2 2 2 2 2 2
left_child=1 -1 7 4 5 6 -3 8 -2 10 12 -12 -9 -5
right_child=2 3 -4 13 -6 -7 -8 9 -10 -11 11 -13 -14 -15
leaf_value=-0.020782986525454943 -0.027124735675729834 -0.007265392149322163 0.027534807622576998 0.00053833975984743875 -0.043751831738224049 0.014464724913171512 -0.036621218068184296 0.022831440536978179 0.0080597102104185726 0.0090640583786328246 0.019522008758889927 0.061169280231667324 -0.010847339598801414 -0.027480699788366682
leaf_weight=80.688353002071381 5.7303600311279288 115.87862908840179 36.035369515419006 127.1191740334034 5.1633252054452887 7.6345925182104102 7.6754046082496634 11.591818362474443 8.9463391602039319 163.28819793462753 5.0863564312458021 4.8351559340953827 5.0602576434612301 4.996524602174758
leaf_count=330 23 465 175 516 21 31 31 50 38 700 22 23 22 20
internal_value=1.61073e-05 -0.00854712 0.0124443 -0.00486961 -0.00908281 -0.00771831 -0.00908903 0.00978569 -0.00567768 0.010981 0.0227604 0.0398184 0.0125971 -0.000521321
internal_weight=589.73 349.156 240.574 268.468 136.352 131.189 123.554 204.538 14.6767 189.862 26.5736 9.92151 16.6521 132.116
internal_count=2467 1414 1053 1084 548 527 496 878 61 817 117 45 72 536
is_linear=0
shrinkage=0.05


Tree=18
num_leaves=15
num_cat=0
split_feature=6 6 6 6 5 5 4 5 6 4 4 5 5 6
split_gain=22.8306 4.84653 4.31427 2.12016 1.80039 2.13522 1.74571 2.29765 1.52242 1.48563 2.17692 3.1993 2.89451 2.65218
threshold=0.52059046745343152 0.35622445254775909 0.65121137259500872 0.80370701709059034 1.5100205676676242 1.4235640606669977 0.29000000000000054 1.3279273312041762 0.64877903067124143 0.18000000000000019 -0.060000000000000046 0.055641505636071294 -0.52164521535109987 0.46868036465590995
decision_type=2 2 2 2 2 2 2 2 2 2 2 2 2 2
left_child=1 -1 6 -4 5 9 7 8 -2 10 11 -3 13 -12
right_child=2 4 3 -5 -6 -7 -8 -9 -10 -11 12 -13 -14 -15
leaf_value=-0.019802840641519218 0.0063151712865212491 -0.0040989903127763806 0.017150216813263425 0.049055921422517516 -0.021984318666459179 0.017249002045030624 -0.011413421809246959 0.025726517281260221 -0.022431535085555024 -0.015537907453996282 -0.019310175577590849 -0.02675228194936622 0.0092196929107332942 0.012721203596384831
leaf_weight=80.45401331782341 144.2437440007925 70.608716815710068 92.186315223574638 5.518495872616767 15.576246559619902 10.835044056177138 13.495210051536558 15.328847035765646 4.7576285153627387 31.390090361237526 22.172879889607433 20.000807479023933 52.750790730118752 9.1205799877643567
leaf_count=330 608 284 421 29 63 44 55 67 20 126 89 81 213 37
internal_value=1.61235e-05 -0.00922561 0.0105116 0.0189523 -0.00556477 -0.00438551 0.00587393 0.00729361 0.00539729 -0.00552319 -0.00372327 -0.00909939 0.00207282 -0.00997453
internal_weight=588.439 312.909 275.53 97.7048 232.455 216.879 177.825 164.33 149.001 206.044 174.654 90.6095 84.0443 31.2935
internal_count=2467 1267 1200 450 937 874 750 695 628 830 704 365 339 126
is_linear=0
shrinkage=0.05


Tree=19
num_leaves=15
num_cat=0
split_feature=6 6 6 5 4 5 4 6 5 4 4 5 4 4
split_gain=20.7333 5.28247 3.41277 2.37954 2.30699 2.37535 2.24084 1.61689 2.66279 1.62787 3.10932 3.2893 2.55772 1.68493
threshold=0.54736875589078882 0.43970150572135763 0.74165353389758704 1.8679818053347435 0.29000000000000054 1.1325856414385387 0.23000000000000045 0.28786218724983514 -0.083953189667482761 -0.1066666666666669 -0.15333333333333374 -0.80369589088159887 -0.086666666666666434 -0.24333333333333315
decision_type=2 2 2 2 2 2 2 2 2 2 2 2 2 2
left_child=1 3 4 7 5 6 -2 8 -1 10 11 13 -11 -9
right_child=2 -3 -4 -5 -6 -7 -8 9 -10 12 -12 -13 -14 -15
leaf_value=-0.011274868502610575 0.0069090634439716737 -0.0016151324584897213 0.031163485579017249 -0.048349806477149426 -0.0081104447974076205 0.021584683952688668 0.034291099672613241 -0.012841873995267011 -0.047959295828940263 0.027301499581896739 -0.039826523004022209 0.0092417730126508092 -0.0094827225589313256 -0.044720812164377483
leaf_weight=12.260491058230402 151.48705805838108 174.65443500876427 19.957216426730156 4.8790843635797492 17.024783760309219 42.329233199357986 7.8593422621488562 11.677550762891771 8.2923295646905881 4.9598988592624655 12.908449754118918 12.435936972498896 100.09711140394211 6.4256889522075644
leaf_count=50 658 708 101 21 71 189 34 47 36 20 52 50 404 26
internal_value=1.61174e-05 -0.0077575 0.0113705 -0.0139252 0.00956433 0.0110564 0.00825961 -0.0129317 -0.0260757 -0.0111126 -0.0192529 -0.0105567 -0.00774608 -0.0241572
internal_weight=587.249 348.591 238.658 173.937 218.7 201.676 159.346 169.057 20.5528 148.505 43.4476 30.5392 105.057 18.1032
internal_count=2467 1414 1053 706 952 881 692 685 86 599 175 123 424 73
is_linear=0
shrinkage=0.05


Tree=20
num_leaves=15
num_cat=0
split_feature=6 6 6 6 4 4 5 5 4 5 4 4 5 6
split_gain=18.7733 5.30217 2.67616 1.94634 1.92098 2.78865 3.47802 2.82367 2.69185 2.33137 3.89874 2.24705 2.22637 2.58325
threshold=0.48639672883236379 0.65121137259500872 0.35622445254775909 0.80370701709059034 0.1799999999999993 0.083333333333333495 1.0145562857911516 0.59165843387728156 0.22666666666666616 -0.0069178170153243448 -0.026666666666666835 0.013333333333333199 -1.1226047551789049 0.45607524009422545
decision_type=2 2 2 2 2 2 2 2 2 2 2 2 2 2
left_child=2 -2 -1 -3 5 6 7 9 -6 11 -11 12 -4 -14
right_child=1 3 4 -5 8 -7 -8 -9 -10 10 -12 -13 13 -15
leaf_value=-0.018049065316792644 0.00368627054311987 0.015816613912969096 -0.011917495097157069 0.046984739476881199 -0.050402648543756624 0.0096716462416337953 -0.039179505812947393 0.023610747370548791 -0.01115364795717517 -0.047521245801663239 -0.0015013820851742057 -0.023959649882273972 0.0010475031998864355 0.034301280785218262
leaf_weight=79.928156688809395 244.43513143062592 91.184449285268784 25.147411659359925 5.2999601960182181 5.470637038350108 27.6977499127388 8.3095707297325117 7.6817222982645026 21.684023201465607 8.9546515196561831 9.4688401967287046 11.934114992618559 31.678815975785263 7.1601883172988883
leaf_count=330 1022 421 101 29 22 112 34 31 87 36 38 48 127 29
internal_value=1.56543e-05 0.00760385 -0.0105384 0.0175287 -0.00690425 -0.00451274 -0.00807348 -0.00554003 -0.0190608 -0.00791356 -0.0238691 -0.00404165 -0.000326739 0.00717802
internal_weight=586.035 340.92 245.116 96.4844 165.188 138.033 110.335 102.026 27.1547 94.344 18.4235 75.9205 63.9864 38.839
internal_count=2467 1472 995 450 665 556 444 410 109 379 74 305 257 156
is_linear=0
shrinkage=0.05


Tree=21
num_leaves=15
num_cat=0
split_feature=6 6 6 5 4 5 4 5 5 6 5 4 4 5
split_gain=17.2366 4.29511 2.98545 2.18897 2.07551 2.17722 2.07319 1.50135 1.46074 1.43024 2.49205 1.5018 2.82887 2.94236
threshold=0.54736875589078882 0.43970150572135763 0.74165353389758704 1.8679818053347435 0.29000000000000054 1.1325856414385387 0.23000000000000045 1.0072283586141355 1.6149768715289101 0.28786218724983514 -1.2797460653042056 -0.1066666666666669 -0.15333333333333374 -0.80369589088159887
decision_type=2 2 2 2 2 2 2 2 2 2 2 2 2 2
left_child=1 3 4 9 5 6 -2 -6 -7 10 -1 12 13 -11
right_child=2 -3 -4 -5 7 8 -8 -9 -10 11 -12 -13 -14 -15
leaf_value=0.0032104445542652151 0.0061849457358314538 -0.0015345256611981725 0.029188778522311581 -0.045971086865536512 0.013378650655777039 0.02799609544279252 0.032667527309694265 -0.018326335604334741 0.0089808624430248573 -0.022422334313608679 -0.035330481908810121 -0.0067545785268574758 -0.037493786582886664 0.0091931219447504691
leaf_weight=5.9126610159873989 150.82737626135349 174.63374604284763 19.440238952636719 4.7912197709083548 5.531241953372958 24.940861955285072 7.7710016369819632 11.4911503046751 16.972808495163918 18.037557110190392 14.43125908076763 104.82889215648174 12.852917611598967 12.431253880262377
leaf_count=24 658 708 101 21 23 111 34 48 78 73 62 424 52 50
internal_value=1.5357e-05 -0.00706847 0.0104156 -0.0126455 0.00873795 0.010161 0.00748254 -0.00802414 0.0202959 -0.0116978 -0.0241291 -0.00999079 -0.0178217 -0.00952325
internal_weight=584.894 347.92 236.975 173.286 217.534 200.512 158.598 17.0224 41.9137 168.495 20.3439 148.151 43.3217 30.4688
internal_count=2467 1414 1053 706 952 881 692 71 189 685 86 599 175 123
is_linear=0
shrinkage=0.05


Tree=22
num_leaves=15
num_cat=0
split_feature=6 6 6 5 6 4 5 6 6 6 6 6 4 4
split_gain=15.6006 3.94389 2.84272 1.75655 1.56789 1.47082 2.06084 1.78363 1.73547 1.64625 1.91941 1.66251 1.45253 1.51667
threshold=0.54736875589078882 0.37692582241134204 0.70842079093450716 0.86916897040581287 0.70319011575160295 -0.27333333333333293 -1.5651685331576599 0.60519205365000095 0.68709042504639373 0.68319946382972463 0.65121137259500872 0.55458960487998421 -0.40333333333333282 0.15333333333333291
decision_type=2 2 2 2 2 2 2 2 2 2 2 2 2 2
left_child=1 3 4 -1 5 7 -7 -2 9 10 11 -8 -3 -14
right_child=2 12 -4 -5 -6 6 8 -9 -10 -11 -12 -13 13 -15
leaf_value=-0.01202706994538446 0.010697248047719094 -0.026178983817094034 0.023246969435310925 -0.029556755592741121 -0.020964933306505971 0.03756322433030012 0.024812502503821082 -0.024275760955589129 0.029049303784786068 -0.01616565875802126 0.019606546285828495 0.0040277432004209588 -0.00037692148499077156 -0.009667424989149501
leaf_weight=85.079658851027489 7.2332037538290006 6.7371365278959265 34.272237882018089 17.175616830587387 4.6690819412469855 6.3465801924467078 10.474780008196829 7.3504702895879745 9.7648726254701597 7.1176002919673911 30.872528553009033 118.0143718123436 180.56819322705269 58.052355214953423
leaf_count=349 30 27 175 73 21 28 46 31 44 32 140 506 731 234
internal_value=1.49965e-05 -0.00672174 0.00993291 -0.0149715 0.00767224 0.00835036 0.00957081 -0.00692986 0.0085628 0.00736116 0.00841194 0.00572217 -0.00328357 -0.00263714
internal_weight=583.729 347.613 236.116 102.255 201.843 197.174 182.591 14.5837 176.244 166.479 159.362 128.489 245.358 238.621
internal_count=2467 1414 1053 422 878 857 796 61 768 724 692 552 992 965
is_linear=0
shrinkage=0.05


Tree=23
num_leaves=15
num_cat=0
split_feature=6 6 5 4 6 5 5 4 4 4 4 6 5 4
split_gain=14.2461 4.67219 2.13822 2.06989 2.05868 3.16367 2.05874 1.89199 4.05478 3.43705 1.8964 1.77093 1.64386 1.61954
threshold=0.46587436174851465 0.65121137259500872 1.5441378960648076 -0.27333333333333293 0.28786218724983514 -0.083953189667482761 -1.7433452093397752 0.1799999999999993 0.076666666666666675 0.24333333333333321 0.093333333333333282 0.80370701709059034 1.0145562857911516 0.059999999999999172
decision_type=2 2 2 2 2 2 2 2 2 2 2 2 2 2
left_child=2 3 4 -2 5 -1 -6 8 12 -9 -10 -3 -8 -5
right_child=1 11 -4 13 6 -7 7 9 10 -11 -12 -13 -14 -15
leaf_value=-0.0084626057594388241 -0.012092805349785483 0.013947562612211296 -0.033394245019713151 0.0079810123261203261 -0.030989461920021905 -0.049300607437012617 -0.0070371990108866744 -0.04029242928211927 0.040625920246051973 -0.0038498635792846795 0.0067296201530045799 0.04445101206837275 -0.036762685351585819 -5.4361376101017446e-05
leaf_weight=12.151833921670915 21.825382083654404 89.70787912607193 9.4972885251045209 125.34437042474747 8.8754873275756818 7.7778880298137656 115.13223542273045 10.830897614359857 4.9366633445024517 16.069461449980736 25.138521328568459 5.0247156471014014 4.8467893302440634 125.48543375730515
leaf_count=50 89 421 41 526 36 35 465 44 20 65 102 29 20 524
internal_value=1.50391e-05 0.00599961 -0.0101991 0.00267599 -0.00912844 -0.0244003 -0.00749058 -0.00631195 -0.00412291 -0.0185227 0.0122935 0.0155655 -0.00823802 0.00396107
internal_weight=582.645 367.388 215.257 272.655 205.76 19.9297 185.83 176.955 150.054 26.9004 30.0752 94.7326 119.979 250.83
internal_count=2467 1589 878 1139 837 85 752 716 607 109 122 450 485 1050
is_linear=0
shrinkage=0.05


Tree=24
num_leaves=15
num_cat=0
split_feature=6 6 6 4 5 4 5 5 5 6 6 6 6 5
split_gain=13.0139 3.29236 2.4616 1.84739 2.02045 1.93525 1.83932 1.37357 1.37043 1.32475 1.26213 1.85228 1.14399 2.20106
threshold=0.54736875589078882 0.43970150572135763 0.74165353389758704 0.29000000000000054 1.1325856414385387 0.23000000000000045 1.8679818053347435 1.0072283586141355 1.6149768715289101 0.54520600904165761 0.70842079093450716 0.71887007925335855 0.28786218724983514 -0.083953189667482761
decision_type=2 2 2 2 2 2 2 2 2 2 2 2 2 2
left_child=1 6 3 4 5 10 12 -5 -6 -3 -2 -12 13 -1
right_child=2 9 -4 7 8 -7 -8 -9 -10 -11 11 -13 -14 -15
leaf_value=-0.0080505686553356479 0.0039113008861993452 -0.00055050364795356844 0.026497050615524223 0.012314600042154828 0.026299031072697366 0.030874224248897148 -0.042126330232536979 -0.018063661280056122 0.0077762493929646528 -0.026678510795268014 0.046495327326346203 0.0025017058944784764 -0.0086609695321132607 -0.042008674374990944
leaf_weight=12.135516017675402 140.11421239376068 169.64904262125492 18.734138160943985 5.5041367560625103 24.605042472481728 7.6648189127445212 4.6302612721920005 11.486329376697539 16.806708723306656 4.9941413253545752 4.4076060503721219 5.2334831207990646 147.68424582481384 7.8640888482332221
leaf_count=50 610 688 101 23 111 34 21 48 78 20 22 26 599 36
internal_value=1.43526e-05 -0.00613572 0.00911157 0.00760245 0.00895471 0.00636958 -0.0110392 -0.00822249 0.0187817 -0.00129767 0.00511538 0.0226142 -0.0101807 -0.0214033
internal_weight=581.514 346.957 234.556 215.822 198.832 157.42 172.314 16.9905 41.4118 174.643 149.755 9.64109 167.684 19.9996
internal_count=2467 1414 1053 952 881 692 706 71 189 708 658 48 685 86
is_linear=0
shrinkage=0.05


Tree=25
num_leaves=15
num_cat=0
split_feature=6 6 6 5 5 5 5 5 5 5 6 6 6 6
split_gain=11.8731 2.58081 2.57024 1.56953 1.81064 1.42412 2.00703 1.42333 2.60768 2.291 1.37368 1.49903 1.5201 1.51972
threshold=0.52059046745343152 0.70842079093450716 0.35622445254775909 1.5100205676676242 1.4235640606669977 -0.31134430072772185 -0.80369589088159887 0.055641505636071294 0.5473326607986132 0.86916897040581287 0.70319011575160295 0.65121137259500872 0.67513680833168688 0.68709042504639373
decision_type=2 2 2 2 2 2 2 2 2 2 2 2 2 2
left_child=2 10 -1 4 -4 6 -3 -7 -9 -10 11 -2 -13 -14
right_child=1 5 3 -5 -6 7 -8 8 9 -11 -12 12 13 -15
leaf_value=-0.014462071094532831 0.0041347257790368313 0.017818047655674223 -0.0039491401391530427 -0.01937003949250185 0.017047404390206654 -0.0088194635881220351 0.066194936074746441 0.055579095424866137 -0.017894796379621054 0.0241905003227448 -0.021001303600220685 0.023531898730415571 -0.0021469529199896883 0.019658415115817202
leaf_weight=78.611261591315269 176.00910744071007 5.1511924117803574 205.79897445440292 15.50339490175247 10.80698102712631 5.1550742387771633 3.6724742203950864 4.2037248909473446 4.7038502842187873 10.346766680479048 4.6667054593563071 22.627774074673653 19.653654366731644 13.464972749352453
leaf_count=330 750 28 830 63 44 26 20 22 25 54 21 103 90 61
internal_value=1.41583e-05 0.00769092 -0.00664803 -0.00400156 -0.00290157 0.0207377 0.0379529 0.0145146 0.020762 0.0110374 0.00585699 0.00639781 0.0135431 0.00671841
internal_weight=580.376 269.655 310.721 232.109 216.606 33.2331 8.82367 24.4094 19.2543 15.0506 236.422 231.756 55.7464 33.1186
internal_count=2467 1200 1267 937 874 175 48 127 101 79 1025 1004 254 151
is_linear=0
shrinkage=0.05


Tree=26
num_leaves=15
num_cat=0
split_feature=6 6 4 5 6 4 4 4 5 5 4 4 4 4
split_gain=10.8399 3.60425 1.84526 1.80407 1.61907 1.48292 1.9812 2.46721 2.43291 1.94752 1.58509 1.54523 2.88973 2.38175
threshold=0.46587436174851465 0.65121137259500872 -0.27333333333333293 1.8679818053347435 0.80370701709059034 0.059999999999999172 0.11333333333333374 0.12999999999999992 0.88903504988752158 -0.26722440087145921 -0.016666666666666604 -0.20666666666666653 -0.18000000000000013 -0.12666666666666646
decision_type=2 2 2 2 2 2 2 2 2 2 2 2 2 2
left_child=3 2 -2 -1 -3 10 8 -8 9 -7 11 -4 -13 -14
right_child=1 4 5 -5 -6 6 7 -9 -10 -11 -12 12 13 -15
leaf_value=-0.0082374473263728491 -0.011589350049071167 0.012214738188486549 0.016845037754989509 -0.040103852777928529 0.042128231049863241 -0.00414280182791062 0.024531096667689635 6.54705602023769e-05 0.0051828972367270942 -0.040745019797540201 0.016825680510965411 -0.028028650439440479 0.01945487743437288 -0.0017699715844427131
leaf_weight=209.76210451126099 21.841282472014427 88.306253433227539 18.773415982723236 4.5375541150569907 4.7676892280578604 6.179751753807067 11.681611433625219 87.420793607831001 11.132785394787787 8.8225006759166735 32.966065898537636 7.7864857316017142 18.381266683340073 47.04909910261631
leaf_count=857 89 421 79 21 29 26 49 363 49 37 140 32 77 198
internal_value=1.44982e-05 0.00525399 0.00234818 -0.00891218 0.013747 0.00356489 -0.000280173 0.00294934 -0.0125263 -0.0256678 0.00741859 0.00404743 0.000766013 0.0041927
internal_weight=579.409 365.109 272.035 214.3 93.0739 250.194 125.237 99.1024 26.135 15.0023 124.956 91.9903 73.2169 65.4304
internal_count=2467 1589 1139 878 450 1050 524 412 112 63 526 386 307 275
is_linear=0
shrinkage=0.05


Tree=27
num_leaves=15
num_cat=0
split_feature=6 6 6 4 4 5 4 6 5 4 4 4 5 4
split_gain=10.0053 3.35643 1.85366 1.7603 1.64809 3.4685 2.11282 1.3195 2.61952 1.45867 1.31761 2.73125 1.21271 1.53297
threshold=0.59119071098410603 0.43970150572135763 0.80370701709059034 -0.26333333333333359 -0.12666666666666646 -0.44292313684354662 -0.073333333333332792 0.28786218724983514 -0.083953189667482761 -0.043333333333333439 0.15333333333333291 0.11999999999999968 1.5441378960648076 -0.1066666666666669
decision_type=2 2 2 2 2 2 2 2 2 2 2 2 2 2
left_child=1 7 3 -2 5 -5 -6 8 9 -1 11 -3 13 -9
right_child=2 10 -4 4 6 -7 -8 12 -10 -11 -12 -13 -14 -15
leaf_value=0.0091693435559479664 -0.009680159499753373 -0.0002490502057843749 0.041058522769433344 0.0084813397040182249 -0.0092825935397382302 0.050087064485379265 0.010565067851802619 -0.014926266414899815 -0.042774537427643256 -0.025765291116305884 -0.0068929123416281157 0.021203228180409858 -0.028079525622840051 -0.0036518608893694247
leaf_weight=6.6402532160282135 11.672961786389349 154.94182297587395 4.6503195315599433 14.19310335814953 15.034852936863897 7.7415639758110038 123.96320776641369 43.035271212458611 8.5080140978097898 5.4326442182064074 58.369531705975533 16.408594325184822 7.1827130466699591 100.69752341508865
leaf_count=27 52 638 29 64 70 39 564 175 40 23 237 68 32 409
internal_value=1.44972e-05 -0.00435625 0.00990762 0.00906836 0.0104282 0.0231656 0.00841823 -0.00964912 -0.0215254 -0.00655078 -0.000404881 0.00180523 -0.0080295 -0.00702755
internal_weight=578.472 401.216 177.256 172.606 160.933 21.9347 138.998 171.496 20.5809 12.0729 229.72 171.35 150.916 143.733
internal_count=2467 1649 818 789 737 103 634 706 90 50 943 706 616 584
is_linear=0
shrinkage=0.05


Tree=28
num_leaves=15
num_cat=0
split_feature=6 6 6 4 4 4 4 6 5 4 4 4 5 4
split_gain=9.06088 3.03926 1.73939 1.59457 1.51749 3.26105 1.91301 1.21333 2.4341 1.32591 1.18864 2.47564 1.15874 1.12463
threshold=0.59119071098410603 0.43970150572135763 0.80370701709059034 -0.26333333333333359 -0.12666666666666646 -0.17333333333333331 -0.073333333333332792 0.28786218724983514 -0.083953189667482761 -0.013333333333333195 0.15333333333333291 0.11999999999999968 0.47617489388918349 0.059999999999999172
decision_type=2 2 2 2 2 2 2 2 2 2 2 2 2 2
left_child=1 7 3 -2 5 -5 -6 8 9 -1 11 -3 -10 -8
right_child=2 10 -4 4 6 -7 13 -9 12 -11 -12 -13 -14 -15
leaf_value=0.0070194534094017956 -0.0091721589027610757 -0.00023658927386436773 0.04001249418161662 0.0081992995764326015 -0.0087885233967884054 0.048977123912076315 0.017044590097743222 -0.0076371909063031778 -0.059800763542312035 -0.02699248397537601 -0.0065443090887724528 0.020222699690259992 -0.022581993176076193 0.0068082635211145909
leaf_weight=7.3509466797113419 11.702708020806311 154.94725798070431 4.5362248867750159 14.24527330696583 15.084753155708311 7.4758654683828345 39.398439466953278 150.74410644173622 4.2175658047199232 4.6959519386291522 58.403923258185387 16.345616981387138 4.1479103118181229 84.130121454596519
leaf_count=30 52 638 29 65 70 38 182 616 20 20 237 68 20 382
internal_value=1.42582e-05 -0.00414271 0.00945132 0.00864549 0.00994599 0.022234 0.00802042 -0.00918632 -0.0206266 -0.0062386 -0.000384505 0.00171574 -0.0413463 0.0100731
internal_weight=577.427 400.853 176.573 172.037 160.334 21.7211 138.613 171.156 20.4124 12.0469 229.697 171.293 8.36548 123.529
internal_count=2467 1649 818 789 737 103 634 706 90 50 943 706 40 564
is_linear=0
shrinkage=0.05


Tree=29
num_leaves=15
num_cat=0
split_feature=6 6 6 5 4 4 5 5 5 5 6 6 4 6
split_gain=8.25079 2.5334 1.43795 2.33007 2.47093 2.44462 2.83359 2.26226 2.1888 2.06113 3.11761 2.40409 1.88744 1.41425
threshold=0.48639672883236379 0.65121137259500872 0.28786218724983514 -1.7433452093397752 0.1799999999999993 0.073333333333333708 1.0145562857911516 -0.083953189667482761 0.59165843387728156 -0.040854377104373889 0.4123488102401297 0.46587436174851465 0.24333333333333321 0.64877903067124143
decision_type=2 2 2 2 2 2 2 2 2 2 2 2 2 2
left_child=2 13 7 -4 5 6 8 -1 9 11 -11 -5 -6 -2
right_child=1 -3 3 4 12 -7 -8 -9 -10 10 -12 -13 -14 -15
leaf_value=-0.0059409024525355035 0.0029699607413643269 0.012192742020478525 -0.027980190781458716 -0.0036891018961467052 -0.030114542834575438 0.0088853299946334841 -0.031227505126124013 -0.039971360378886739 0.020651409350163789 -0.0026600934959863593 -0.039169128291261956 0.031428676167790874 -0.0073383634441741251 -0.024713959613868637
leaf_weight=12.021840989589693 237.75262254476547 91.61128805577755 11.286089748144148 85.613763526082039 14.822668001055716 39.102067425847054 9.7884103953838331 8.2249046266078931 8.8684847652912122 13.749236628413202 10.174438565969465 5.1676225215196601 23.543766170740128 4.7045948356389991
leaf_count=50 1002 450 46 347 62 159 41 40 36 56 41 21 96 20
internal_value=1.40696e-05 0.00510925 -0.00700902 -0.00584625 -0.00466138 -0.00210833 -0.0053317 -0.0197652 -0.00328046 -0.00513076 -0.0181869 -0.00169006 -0.0161378 0.00243279
internal_weight=576.432 334.069 242.363 222.117 210.83 172.464 133.362 20.2467 123.574 114.705 23.9237 90.7814 38.3664 242.457
internal_count=2467 1472 995 905 859 701 542 90 501 465 97 368 158 1022
is_linear=0
shrinkage=0.05


Tree=30
num_leaves=15
num_cat=0
split_feature=6 6 6 4 4 5 4 6 5 6 5 4 4 5
split_gain=7.5972 2.50624 1.62006 1.45926 1.38507 3.1635 1.75956 1.07383 1.05606 1.05909 2.21727 1.26641 2.74464 2.47309
threshold=0.59119071098410603 0.43970150572135763 0.80370701709059034 -0.26333333333333359 -0.12666666666666646 -0.44292313684354662 -0.073333333333332792 0.68009911028359404 1.5100205676676242 0.28350432262652397 -0.083953189667482761 -0.1066666666666669 -0.15333333333333374 -0.80369589088159887
decision_type=2 2 2 2 2 2 2 2 2 2 2 2 2 2
left_child=1 8 3 -2 5 7 -6 -5 9 10 -1 12 13 -11
right_child=2 -3 -4 4 6 -7 -8 -9 -10 11 -12 -13 -14 -15
leaf_value=-0.0064013071947116628 -0.0091247729456911068 -0.00037994250774054018 0.038674716481654457 0.01684920767654639 -0.0087847265205486056 0.047456316638730463 0.0093123240909258002 -0.012464119893452306 -0.025840031690219485 -0.016829912543828204 -0.044146914585898943 -0.0030398514580871746 -0.032801065788904939 0.012104149034148158
leaf_weight=11.515698611736299 11.698666185140608 229.57582452893257 4.3918501436710349 9.3490405380725878 15.081262946128843 7.3972040116786948 122.79268731176853 4.6923100203275672 8.2438539862632734 18.306773900985718 5.875927358865737 101.50329226255417 12.693595007061957 12.379063814878466
leaf_count=48 52 943 29 42 70 39 564 22 38 75 29 414 52 50
internal_value=1.32763e-05 -0.00379048 0.00868964 0.00791957 0.00917118 0.0209941 0.00733279 0.00705334 -0.00838223 -0.00749534 -0.019154 -0.00609584 -0.0132465 -0.00515754
internal_weight=575.497 400.094 175.403 171.011 159.313 21.4386 137.874 14.0414 170.518 162.274 17.3916 144.883 43.3794 30.6858
internal_count=2467 1649 818 789 737 103 634 64 706 668 77 591 177 125
is_linear=0
shrinkage=0.05


Tree=31
num_leaves=15
num_cat=0
split_feature=6 6 4 4 6 5 6 5 5 5 4 5 6 4
split_gain=6.8794 1.82571 1.77367 1.68237 1.66815 1.3769 1.28727 1.47281 1.91626 1.36399 2.21673 3.30284 1.99819 1.36588
threshold=0.52779932461794565 0.74165353389758704 0.29000000000000054 0.23000000000000045 0.35622445254775909 1.0072283586141355 0.5313631569359144 1.1325856414385387 1.265113378684813 0.53520985536708932 0.12999999999999992 0.021751424501420761 0.56444012265106813 0.036666666666666188
decision_type=2 2 2 2 2 2 2 2 2 2 2 2 2 2
left_child=4 2 3 6 -1 -4 -2 9 -9 10 11 -8 -13 -14
right_child=1 -3 5 -5 -6 -7 7 8 -10 -11 -12 12 13 -15
leaf_value=-0.011280721503999083 0.031231072929621635 0.021743608511707247 0.010247432294131151 0.023761894861450701 -0.0028384710273765905 -0.020182428175353515 0.0028990926363497921 0.033718757850394548 0.0072615045739114455 -0.0053034180739337279 -0.014117984223646698 0.046094199284714511 0.025964274016411899 -0.0037573657271629348
leaf_weight=77.156103849411011 4.6105192005634299 17.448869735002518 5.4507211148738888 12.830680295825003 242.17532466351986 11.690282493829725 84.85405632853508 8.8296213001012784 30.432441651821136 42.304230540990829 13.332736417651175 7.1697228401899364 9.9443294852972048 6.3235756605863562
leaf_count=330 19 101 23 59 980 49 377 41 140 185 58 31 45 29
internal_value=1.29633e-05 0.00613283 0.00498724 0.00619091 -0.00487827 -0.0105059 0.00510599 0.0045132 0.0132115 0.00242991 0.00511976 0.00748829 0.0241031 0.014411
internal_weight=574.553 255.222 237.773 220.632 319.331 17.141 207.801 203.191 39.2621 163.929 121.624 108.292 23.4376 16.2679
internal_count=2467 1157 1056 984 1310 72 925 906 181 725 540 482 105 74
is_linear=0
shrinkage=0.05


end of trees

feature_importances:
bt_proba=196
diff_avg_rating=132
diff_clutch=120

parameters:
[boosting: gbdt]
[objective: binary]
[metric: binary_logloss]
[tree_learner: serial]
[device_type: cpu]
[data_sample_strategy: bagging]
[data: ]
[valid: ]
[num_iterations: 200]
[learning_rate: 0.05]
[num_leaves: 15]
[num_threads: 0]
[seed: 0]
[deterministic: 0]
[force_col_wise: 0]
[force_row_wise: 0]
[histogram_pool_size: -1]
[max_depth: -1]
[min_data_in_leaf: 20]
[min_sum_hessian_in_leaf: 0.001]
[bagging_fraction: 1]
[pos_bagging_fraction: 1]
[neg_bagging_fraction: 1]
[bagging_freq: 0]
[bagging_seed: 3]
[bagging_by_query: 0]
[feature_fraction: 1]
[feature_fraction_bynode: 1]
[feature_fraction_seed: 2]
[extra_trees: 0]
[extra_seed: 6]
[early_stopping_round: 0]
[early_stopping_min_delta: 0]
[first_metric_only: 0]
[max_delta_step: 0]
[lambda_l1: 0]
[lambda_l2: 0]
[linear_lambda: 0]
[min_gain_to_split: 0]
[drop_rate: 0.1]
[max_drop: 50]
[skip_drop: 0.5]
[xgboost_dart_mode: 0]
[uniform_drop: 0]
[drop_seed: 4]
[top_rate: 0.2]
[other_rate: 0.1]
[min_data_per_group: 100]
[max_cat_threshold: 32]
[cat_l2: 10]
[cat_smooth: 10]
[max_cat_to_onehot: 4]
[top_k: 20]
[monotone_constraints: ]
[monotone_constraints_method: basic]
[monotone_penalty: 0]
[feature_contri: ]
[forcedsplits_filename: ]
[refit_decay_rate: 0.9]
[cegb_tradeoff: 1]
[cegb_penalty_split: 0]
[cegb_penalty_feature_lazy: ]
[cegb_penalty_feature_coupled: ]
[path_smooth: 0]
[interaction_constraints: ]
[verbosity: 1]
[saved_feature_importance_type: 0]
[use_quantized_grad: 0]
[num_grad_quant_bins: 4]
[quant_train_renew_leaf: 0]
[stochastic_rounding: 1]
[linear_tree: 0]
[max_bin: 255]
[max_bin_by_feature: ]
[min_data_in_bin: 3]
[bin_construct_sample_cnt: 200000]
[data_random_seed: 1]
[is_enable_sparse: 1]
[enable_bundle: 1]
[use_missing: 1]
[zero_as_missing: 0]
[feature_pre_filter: 1]
[pre_partition: 0]
[two_round: 0]
[header: 0]
[label_column: ]
[weight_column: ]
[group_column: ]
[ignore_column: ]
[categorical_feature: ]
[forcedbins_filename: ]
[precise_float_parser: 0]
[parser_config_file: ]
[objective_seed: 5]
[num_class: 1]
[is_unbalance: 0]
[scale_pos_weight: 1]
[sigmoid: 1]
[boost_from_average: 1]
[reg_sqrt: 0]
[alpha: 0.9]
[fair_c: 1]
[poisson_max_delta_step: 0.7]
[tweedie_variance_power: 1.5]
[lambdarank_truncation_level: 30]
[lambdarank_norm: 1]
[label_gain: ]
[lambdarank_position_bias_regularization: 0]
[eval_at: ]
[multi_error_top_k: 1]
[auc_mu_weights: ]
[num_machines: 1]
[local_listen_port: 12400]
[time_out: 120]
[machine_list_filename: ]
[machines: ]
[gpu_platform_id: -1]
[gpu_device_id: -1]
[gpu_use_dp: 0]
[num_gpu: 1]

end of parameters

pandas_categorical:[]
